<?xml version="1.0"?>
<opencv_storage>
<cascade>
  <stageType>BOOST</stageType>
  <featureType>HAAR</featureType>
  <height>83</height>
  <width>70</width>
  <stageParams>
    <boostType>GAB</boostType>
    <minHitRate>9.9900001287460327e-01</minHitRate>
    <maxFalseAlarm>5.0000000000000000e-01</maxFalseAlarm>
    <weightTrimRate>9.4999999999999996e-01</weightTrimRate>
    <maxDepth>1</maxDepth>
    <maxWeakCount>100</maxWeakCount></stageParams>
  <featureParams>
    <maxCatCount>0</maxCatCount>
    <featSize>1</featSize>
    <mode>ALL</mode></featureParams>
  <stageNum>7</stageNum>
  <stages>
    <!-- stage 0 -->
    <_>
      <maxWeakCount>3</maxWeakCount>
      <stageThreshold>-7.2318744659423828e-01</stageThreshold>
      <weakClassifiers>
        <_>
          <internalNodes>
            0 -1 40 4.2146184568991885e-06</internalNodes>
          <leafValues>
            -8.0840337276458740e-01 8.7661689519882202e-01</leafValues></_>
        <_>
          <internalNodes>
            0 -1 7 3.7542663048952818e-03</internalNodes>
          <leafValues>
            -5.9803956747055054e-01 8.4619456529617310e-01</leafValues></_>
        <_>
          <internalNodes>
            0 -1 44 1.6551344970139326e-06</internalNodes>
          <leafValues>
            -6.5682929754257202e-01 6.8325543403625488e-01</leafValues></_></weakClassifiers></_>
    <!-- stage 1 -->
    <_>
      <maxWeakCount>4</maxWeakCount>
      <stageThreshold>-8.3884023129940033e-02</stageThreshold>
      <weakClassifiers>
        <_>
          <internalNodes>
            0 -1 12 4.8757796175777912e-03</internalNodes>
          <leafValues>
            -4.4479495286941528e-01 7.0600414276123047e-01</leafValues></_>
        <_>
          <internalNodes>
            0 -1 36 -1.4522644960379694e-05</internalNodes>
          <leafValues>
            -9.5658904314041138e-01 2.7969124913215637e-01</leafValues></_>
        <_>
          <internalNodes>
            0 -1 41 3.5940254747401923e-05</internalNodes>
          <leafValues>
            -4.6273711323738098e-01 6.0922759771347046e-01</leafValues></_>
        <_>
          <internalNodes>
            0 -1 16 -1.7232861369848251e-02</internalNodes>
          <leafValues>
            5.4395675659179688e-01 -4.2780715227127075e-01</leafValues></_></weakClassifiers></_>
    <!-- stage 2 -->
    <_>
      <maxWeakCount>9</maxWeakCount>
      <stageThreshold>-1.2133133411407471e+00</stageThreshold>
      <weakClassifiers>
        <_>
          <internalNodes>
            0 -1 10 -2.4423269554972649e-02</internalNodes>
          <leafValues>
            -7.9446637630462646e-01 4.4617667794227600e-01</leafValues></_>
        <_>
          <internalNodes>
            0 -1 47 4.1908724233508110e-03</internalNodes>
          <leafValues>
            -4.9594321846961975e-01 3.9707499742507935e-01</leafValues></_>
        <_>
          <internalNodes>
            0 -1 11 1.4406660920940340e-04</internalNodes>
          <leafValues>
            -6.0724443197250366e-01 3.4174206852912903e-01</leafValues></_>
        <_>
          <internalNodes>
            0 -1 20 -7.5020743533968925e-03</internalNodes>
          <leafValues>
            7.6434719562530518e-01 -3.4865209460258484e-01</leafValues></_>
        <_>
          <internalNodes>
            0 -1 19 4.1251759976148605e-03</internalNodes>
          <leafValues>
            3.3165961503982544e-01 -6.8682241439819336e-01</leafValues></_>
        <_>
          <internalNodes>
            0 -1 17 -2.3097068071365356e-01</internalNodes>
          <leafValues>
            6.2170755863189697e-01 -3.7000411748886108e-01</leafValues></_>
        <_>
          <internalNodes>
            0 -1 49 2.1621798805426806e-04</internalNodes>
          <leafValues>
            -4.2482760548591614e-01 4.7902110219001770e-01</leafValues></_>
        <_>
          <internalNodes>
            0 -1 37 -2.4100399969029240e-05</internalNodes>
          <leafValues>
            -8.7265056371688843e-01 2.9650169610977173e-01</leafValues></_>
        <_>
          <internalNodes>
            0 -1 27 -7.1045715594664216e-04</internalNodes>
          <leafValues>
            2.5067672133445740e-01 -6.5237796306610107e-01</leafValues></_></weakClassifiers></_>
    <!-- stage 3 -->
    <_>
      <maxWeakCount>9</maxWeakCount>
      <stageThreshold>-9.5687943696975708e-01</stageThreshold>
      <weakClassifiers>
        <_>
          <internalNodes>
            0 -1 29 -2.9072532197460532e-04</internalNodes>
          <leafValues>
            -8.7064677476882935e-01 4.1100785136222839e-01</leafValues></_>
        <_>
          <internalNodes>
            0 -1 57 -9.1710651759058237e-05</internalNodes>
          <leafValues>
            -5.5908167362213135e-01 3.1067013740539551e-01</leafValues></_>
        <_>
          <internalNodes>
            0 -1 55 -9.1463858552742749e-05</internalNodes>
          <leafValues>
            -6.5942335128784180e-01 2.6956576108932495e-01</leafValues></_>
        <_>
          <internalNodes>
            0 -1 48 -4.1843056678771973e-02</internalNodes>
          <leafValues>
            6.3003683090209961e-01 -2.9074907302856445e-01</leafValues></_>
        <_>
          <internalNodes>
            0 -1 15 1.3538405764847994e-03</internalNodes>
          <leafValues>
            -3.8765466213226318e-01 3.8877847790718079e-01</leafValues></_>
        <_>
          <internalNodes>
            0 -1 26 3.0645704828202724e-04</internalNodes>
          <leafValues>
            -3.7286421656608582e-01 4.5453798770904541e-01</leafValues></_>
        <_>
          <internalNodes>
            0 -1 3 -1.1528740637004375e-02</internalNodes>
          <leafValues>
            8.8443166017532349e-01 -2.3874641954898834e-01</leafValues></_>
        <_>
          <internalNodes>
            0 -1 18 3.1040702015161514e-04</internalNodes>
          <leafValues>
            -5.6964951753616333e-01 3.3854508399963379e-01</leafValues></_>
        <_>
          <internalNodes>
            0 -1 46 1.6460385173559189e-02</internalNodes>
          <leafValues>
            -2.8264823555946350e-01 5.7525080442428589e-01</leafValues></_></weakClassifiers></_>
    <!-- stage 4 -->
    <_>
      <maxWeakCount>11</maxWeakCount>
      <stageThreshold>-9.5769345760345459e-01</stageThreshold>
      <weakClassifiers>
        <_>
          <internalNodes>
            0 -1 5 5.0625905394554138e-02</internalNodes>
          <leafValues>
            4.0184265375137329e-01 -8.8359791040420532e-01</leafValues></_>
        <_>
          <internalNodes>
            0 -1 14 1.0372226824983954e-03</internalNodes>
          <leafValues>
            -5.1607012748718262e-01 2.6589122414588928e-01</leafValues></_>
        <_>
          <internalNodes>
            0 -1 21 -5.6606479920446873e-03</internalNodes>
          <leafValues>
            7.2840726375579834e-01 -2.1531693637371063e-01</leafValues></_>
        <_>
          <internalNodes>
            0 -1 6 1.4862373471260071e-02</internalNodes>
          <leafValues>
            -7.5902581214904785e-01 3.4552296996116638e-01</leafValues></_>
        <_>
          <internalNodes>
            0 -1 45 7.0020221755839884e-05</internalNodes>
          <leafValues>
            -5.2463883161544800e-01 3.4235581755638123e-01</leafValues></_>
        <_>
          <internalNodes>
            0 -1 54 -2.1780106180813164e-05</internalNodes>
          <leafValues>
            -5.4715490341186523e-01 3.2104575634002686e-01</leafValues></_>
        <_>
          <internalNodes>
            0 -1 56 -5.5501772294519469e-05</internalNodes>
          <leafValues>
            -6.5322768688201904e-01 2.0972231030464172e-01</leafValues></_>
        <_>
          <internalNodes>
            0 -1 13 -1.6870584338903427e-02</internalNodes>
          <leafValues>
            -9.7453075647354126e-01 1.1193294823169708e-01</leafValues></_>
        <_>
          <internalNodes>
            0 -1 33 -2.7198885800316930e-04</internalNodes>
          <leafValues>
            2.3686432838439941e-01 -6.7841458320617676e-01</leafValues></_>
        <_>
          <internalNodes>
            0 -1 2 2.0563009381294250e-01</internalNodes>
          <leafValues>
            -2.3888908326625824e-01 6.0993558168411255e-01</leafValues></_>
        <_>
          <internalNodes>
            0 -1 4 -2.6501300744712353e-03</internalNodes>
          <leafValues>
            2.5401899218559265e-01 -6.5309357643127441e-01</leafValues></_></weakClassifiers></_>
    <!-- stage 5 -->
    <_>
      <maxWeakCount>10</maxWeakCount>
      <stageThreshold>-8.2535755634307861e-01</stageThreshold>
      <weakClassifiers>
        <_>
          <internalNodes>
            0 -1 42 -2.5077554164454341e-04</internalNodes>
          <leafValues>
            -9.7315436601638794e-01 3.7560302019119263e-01</leafValues></_>
        <_>
          <internalNodes>
            0 -1 1 -3.7629753351211548e-02</internalNodes>
          <leafValues>
            3.7557020783424377e-01 -3.3518230915069580e-01</leafValues></_>
        <_>
          <internalNodes>
            0 -1 0 3.7914174795150757e-01</internalNodes>
          <leafValues>
            -3.0427780747413635e-01 5.2635377645492554e-01</leafValues></_>
        <_>
          <internalNodes>
            0 -1 39 9.4892588094808161e-05</internalNodes>
          <leafValues>
            -3.8290151953697205e-01 4.3946191668510437e-01</leafValues></_>
        <_>
          <internalNodes>
            0 -1 52 6.6018910729326308e-05</internalNodes>
          <leafValues>
            -4.2614310979843140e-01 4.4344443082809448e-01</leafValues></_>
        <_>
          <internalNodes>
            0 -1 28 -3.5551527980715036e-04</internalNodes>
          <leafValues>
            -8.7386035919189453e-01 2.2396343946456909e-01</leafValues></_>
        <_>
          <internalNodes>
            0 -1 31 8.9341636339668185e-05</internalNodes>
          <leafValues>
            1.2296131253242493e-01 -8.8841253519058228e-01</leafValues></_>
        <_>
          <internalNodes>
            0 -1 8 1.9581292290240526e-03</internalNodes>
          <leafValues>
            1.5563885867595673e-01 -7.2413814067840576e-01</leafValues></_>
        <_>
          <internalNodes>
            0 -1 30 2.5092303985729814e-04</internalNodes>
          <leafValues>
            -3.5081663727760315e-01 3.9250761270523071e-01</leafValues></_>
        <_>
          <internalNodes>
            0 -1 34 1.8514528346713632e-04</internalNodes>
          <leafValues>
            -3.8033485412597656e-01 4.6214765310287476e-01</leafValues></_></weakClassifiers></_>
    <!-- stage 6 -->
    <_>
      <maxWeakCount>14</maxWeakCount>
      <stageThreshold>-1.1152408123016357e+00</stageThreshold>
      <weakClassifiers>
        <_>
          <internalNodes>
            0 -1 35 -7.1526662213727832e-04</internalNodes>
          <leafValues>
            -8.1005585193634033e-01 3.8353273272514343e-01</leafValues></_>
        <_>
          <internalNodes>
            0 -1 50 2.1444424986839294e-02</internalNodes>
          <leafValues>
            -1.9444851577281952e-01 6.3133925199508667e-01</leafValues></_>
        <_>
          <internalNodes>
            0 -1 43 -7.5191019277554005e-05</internalNodes>
          <leafValues>
            -9.0792536735534668e-01 1.5104891359806061e-01</leafValues></_>
        <_>
          <internalNodes>
            0 -1 22 -2.7885806048288941e-04</internalNodes>
          <leafValues>
            4.7903743386268616e-01 -2.6232296228408813e-01</leafValues></_>
        <_>
          <internalNodes>
            0 -1 24 4.6035498380661011e-03</internalNodes>
          <leafValues>
            -2.7228420972824097e-01 5.8440303802490234e-01</leafValues></_>
        <_>
          <internalNodes>
            0 -1 51 -4.1984097333624959e-04</internalNodes>
          <leafValues>
            3.5044604539871216e-01 -3.4966704249382019e-01</leafValues></_>
        <_>
          <internalNodes>
            0 -1 59 -1.4719313010573387e-02</internalNodes>
          <leafValues>
            6.2147712707519531e-01 -2.6476600766181946e-01</leafValues></_>
        <_>
          <internalNodes>
            0 -1 32 -6.0569553170353174e-04</internalNodes>
          <leafValues>
            -8.4351736307144165e-01 1.7520236968994141e-01</leafValues></_>
        <_>
          <internalNodes>
            0 -1 58 2.3284409195184708e-02</internalNodes>
          <leafValues>
            -2.3288528621196747e-01 6.1770802736282349e-01</leafValues></_>
        <_>
          <internalNodes>
            0 -1 23 2.9178760014474392e-03</internalNodes>
          <leafValues>
            1.7713047564029694e-01 -9.1494506597518921e-01</leafValues></_>
        <_>
          <internalNodes>
            0 -1 9 -6.5881863702088594e-04</internalNodes>
          <leafValues>
            3.2225584983825684e-01 -3.8972505927085876e-01</leafValues></_>
        <_>
          <internalNodes>
            0 -1 53 -5.2175978198647499e-03</internalNodes>
          <leafValues>
            8.3470118045806885e-01 -1.5612301230430603e-01</leafValues></_>
        <_>
          <internalNodes>
            0 -1 38 3.3187412191182375e-04</internalNodes>
          <leafValues>
            1.6753830015659332e-01 -8.7813276052474976e-01</leafValues></_>
        <_>
          <internalNodes>
            0 -1 25 3.9873318746685982e-04</internalNodes>
          <leafValues>
            -4.8997575044631958e-01 2.8942990303039551e-01</leafValues></_></weakClassifiers></_></stages>
  <features>
    <_>
      <rects>
        <_>
          0 8 57 75 -1.</_>
        <_>
          19 33 19 25 9.</_></rects>
      <tilted>0</tilted></_>
    <_>
      <rects>
        <_>
          2 13 54 56 -1.</_>
        <_>
          2 27 54 28 2.</_></rects>
      <tilted>0</tilted></_>
    <_>
      <rects>
        <_>
          2 21 48 54 -1.</_>
        <_>
          18 39 16 18 9.</_></rects>
      <tilted>0</tilted></_>
    <_>
      <rects>
        <_>
          3 16 64 1 -1.</_>
        <_>
          19 32 32 1 2.</_></rects>
      <tilted>1</tilted></_>
    <_>
      <rects>
        <_>
          8 32 28 17 -1.</_>
        <_>
          15 32 14 17 2.</_></rects>
      <tilted>0</tilted></_>
    <_>
      <rects>
        <_>
          10 21 38 28 -1.</_>
        <_>
          29 21 19 28 2.</_></rects>
      <tilted>0</tilted></_>
    <_>
      <rects>
        <_>
          10 33 44 21 -1.</_>
        <_>
          21 33 22 21 2.</_></rects>
      <tilted>0</tilted></_>
    <_>
      <rects>
        <_>
          12 42 42 2 -1.</_>
        <_>
          26 42 14 2 3.</_></rects>
      <tilted>0</tilted></_>
    <_>
      <rects>
        <_>
          16 34 24 4 -1.</_>
        <_>
          24 34 8 4 3.</_></rects>
      <tilted>0</tilted></_>
    <_>
      <rects>
        <_>
          17 35 10 8 -1.</_>
        <_>
          17 39 10 4 2.</_></rects>
      <tilted>0</tilted></_>
    <_>
      <rects>
        <_>
          18 7 48 11 -1.</_>
        <_>
          18 7 24 11 2.</_></rects>
      <tilted>1</tilted></_>
    <_>
      <rects>
        <_>
          20 48 20 7 -1.</_>
        <_>
          30 48 10 7 2.</_></rects>
      <tilted>0</tilted></_>
    <_>
      <rects>
        <_>
          21 39 24 6 -1.</_>
        <_>
          29 39 8 6 3.</_></rects>
      <tilted>0</tilted></_>
    <_>
      <rects>
        <_>
          22 39 22 16 -1.</_>
        <_>
          22 47 22 8 2.</_></rects>
      <tilted>0</tilted></_>
    <_>
      <rects>
        <_>
          23 46 16 13 -1.</_>
        <_>
          31 46 8 13 2.</_></rects>
      <tilted>0</tilted></_>
    <_>
      <rects>
        <_>
          25 30 20 9 -1.</_>
        <_>
          35 30 10 9 2.</_></rects>
      <tilted>0</tilted></_>
    <_>
      <rects>
        <_>
          25 41 40 8 -1.</_>
        <_>
          45 41 20 8 2.</_></rects>
      <tilted>0</tilted></_>
    <_>
      <rects>
        <_>
          26 8 42 63 -1.</_>
        <_>
          40 29 14 21 9.</_></rects>
      <tilted>0</tilted></_>
    <_>
      <rects>
        <_>
          26 34 12 9 -1.</_>
        <_>
          30 37 4 3 9.</_></rects>
      <tilted>0</tilted></_>
    <_>
      <rects>
        <_>
          28 23 15 9 -1.</_>
        <_>
          33 28 5 9 3.</_></rects>
      <tilted>1</tilted></_>
    <_>
      <rects>
        <_>
          28 38 18 9 -1.</_>
        <_>
          34 38 6 9 3.</_></rects>
      <tilted>0</tilted></_>
    <_>
      <rects>
        <_>
          28 39 18 6 -1.</_>
        <_>
          34 39 6 6 3.</_></rects>
      <tilted>0</tilted></_>
    <_>
      <rects>
        <_>
          29 41 15 1 -1.</_>
        <_>
          34 41 5 1 3.</_></rects>
      <tilted>0</tilted></_>
    <_>
      <rects>
        <_>
          30 29 15 12 -1.</_>
        <_>
          30 32 15 6 2.</_></rects>
      <tilted>0</tilted></_>
    <_>
      <rects>
        <_>
          30 38 15 6 -1.</_>
        <_>
          35 38 5 6 3.</_></rects>
      <tilted>0</tilted></_>
    <_>
      <rects>
        <_>
          31 32 4 14 -1.</_>
        <_>
          31 39 4 7 2.</_></rects>
      <tilted>0</tilted></_>
    <_>
      <rects>
        <_>
          31 37 4 6 -1.</_>
        <_>
          31 40 4 3 2.</_></rects>
      <tilted>0</tilted></_>
    <_>
      <rects>
        <_>
          31 39 11 14 -1.</_>
        <_>
          31 46 11 7 2.</_></rects>
      <tilted>0</tilted></_>
    <_>
      <rects>
        <_>
          31 40 9 3 -1.</_>
        <_>
          34 41 3 1 9.</_></rects>
      <tilted>0</tilted></_>
    <_>
      <rects>
        <_>
          32 34 6 4 -1.</_>
        <_>
          34 36 2 4 3.</_></rects>
      <tilted>1</tilted></_>
    <_>
      <rects>
        <_>
          32 37 4 6 -1.</_>
        <_>
          32 40 4 3 2.</_></rects>
      <tilted>0</tilted></_>
    <_>
      <rects>
        <_>
          32 39 2 5 -1.</_>
        <_>
          33 39 1 5 2.</_></rects>
      <tilted>0</tilted></_>
    <_>
      <rects>
        <_>
          33 32 3 9 -1.</_>
        <_>
          33 35 3 3 3.</_></rects>
      <tilted>0</tilted></_>
    <_>
      <rects>
        <_>
          33 35 7 22 -1.</_>
        <_>
          33 46 7 11 2.</_></rects>
      <tilted>0</tilted></_>
    <_>
      <rects>
        <_>
          33 40 4 5 -1.</_>
        <_>
          35 40 2 5 2.</_></rects>
      <tilted>0</tilted></_>
    <_>
      <rects>
        <_>
          34 37 4 4 -1.</_>
        <_>
          34 37 2 4 2.</_></rects>
      <tilted>1</tilted></_>
    <_>
      <rects>
        <_>
          34 41 3 1 -1.</_>
        <_>
          35 41 1 1 3.</_></rects>
      <tilted>0</tilted></_>
    <_>
      <rects>
        <_>
          34 41 3 3 -1.</_>
        <_>
          35 42 1 1 9.</_></rects>
      <tilted>0</tilted></_>
    <_>
      <rects>
        <_>
          34 41 2 4 -1.</_>
        <_>
          33 42 2 2 2.</_></rects>
      <tilted>1</tilted></_>
    <_>
      <rects>
        <_>
          34 41 4 4 -1.</_>
        <_>
          36 41 2 4 2.</_></rects>
      <tilted>0</tilted></_>
    <_>
      <rects>
        <_>
          35 36 1 12 -1.</_>
        <_>
          35 36 1 6 2.</_></rects>
      <tilted>1</tilted></_>
    <_>
      <rects>
        <_>
          35 40 2 4 -1.</_>
        <_>
          36 40 1 4 2.</_></rects>
      <tilted>0</tilted></_>
    <_>
      <rects>
        <_>
          35 41 3 4 -1.</_>
        <_>
          34 42 3 2 2.</_></rects>
      <tilted>1</tilted></_>
    <_>
      <rects>
        <_>
          35 42 1 6 -1.</_>
        <_>
          35 42 1 3 2.</_></rects>
      <tilted>1</tilted></_>
    <_>
      <rects>
        <_>
          35 42 3 4 -1.</_>
        <_>
          35 42 3 2 2.</_></rects>
      <tilted>1</tilted></_>
    <_>
      <rects>
        <_>
          36 42 2 4 -1.</_>
        <_>
          36 42 2 2 2.</_></rects>
      <tilted>1</tilted></_>
    <_>
      <rects>
        <_>
          38 55 30 24 -1.</_>
        <_>
          38 55 15 12 2.</_>
        <_>
          53 67 15 12 2.</_></rects>
      <tilted>0</tilted></_>
    <_>
      <rects>
        <_>
          39 25 12 15 -1.</_>
        <_>
          42 28 6 15 2.</_></rects>
      <tilted>1</tilted></_>
    <_>
      <rects>
        <_>
          40 14 20 48 -1.</_>
        <_>
          40 26 20 24 2.</_></rects>
      <tilted>0</tilted></_>
    <_>
      <rects>
        <_>
          40 37 3 4 -1.</_>
        <_>
          40 37 3 2 2.</_></rects>
      <tilted>1</tilted></_>
    <_>
      <rects>
        <_>
          40 41 12 30 -1.</_>
        <_>
          40 51 12 10 3.</_></rects>
      <tilted>0</tilted></_>
    <_>
      <rects>
        <_>
          41 33 4 8 -1.</_>
        <_>
          39 35 4 4 2.</_></rects>
      <tilted>1</tilted></_>
    <_>
      <rects>
        <_>
          41 38 1 4 -1.</_>
        <_>
          41 38 1 2 2.</_></rects>
      <tilted>1</tilted></_>
    <_>
      <rects>
        <_>
          45 47 4 18 -1.</_>
        <_>
          45 53 4 6 3.</_></rects>
      <tilted>0</tilted></_>
    <_>
      <rects>
        <_>
          46 36 3 4 -1.</_>
        <_>
          46 36 3 2 2.</_></rects>
      <tilted>1</tilted></_>
    <_>
      <rects>
        <_>
          49 34 4 5 -1.</_>
        <_>
          49 34 2 5 2.</_></rects>
      <tilted>1</tilted></_>
    <_>
      <rects>
        <_>
          52 27 2 6 -1.</_>
        <_>
          52 27 2 3 2.</_></rects>
      <tilted>1</tilted></_>
    <_>
      <rects>
        <_>
          52 27 4 10 -1.</_>
        <_>
          52 27 4 5 2.</_></rects>
      <tilted>1</tilted></_>
    <_>
      <rects>
        <_>
          53 49 12 20 -1.</_>
        <_>
          53 49 6 20 2.</_></rects>
      <tilted>1</tilted></_>
    <_>
      <rects>
        <_>
          58 48 12 12 -1.</_>
        <_>
          58 48 6 12 2.</_></rects>
      <tilted>1</tilted></_></features></cascade>
</opencv_storage>
